let model = {"sizes":[17,20,4],"layers":[{"0":{},"1":{},"2":{},"3":{},"4":{},"5":{},"6":{},"7":{},"8":{},"9":{},"10":{},"11":{},"12":{},"13":{},"14":{},"15":{},"16":{}},{"0":{"bias":13.599416732788086,"weights":{"0":18.912399291992188,"1":8.648833274841309,"2":-16.577465057373047,"3":27.708391189575195,"4":-24.070247650146484,"5":0.444524884223938,"6":-19.373083114624023,"7":45.54512405395508,"8":-33.46331787109375,"9":16.211475372314453,"10":8.581746101379395,"11":15.222635269165039,"12":-46.320587158203125,"13":36.6874885559082,"14":-64.03377532958984,"15":1.1465166807174683,"16":53.98297119140625}},"1":{"bias":19.72017478942871,"weights":{"0":22.954866409301758,"1":-77.873291015625,"2":15.341979026794434,"3":9.955451011657715,"4":-20.320154190063477,"5":3.588636875152588,"6":10.755688667297363,"7":-45.90727233886719,"8":-1.8595314025878906,"9":2.771726608276367,"10":-4.0635809898376465,"11":14.682764053344727,"12":1.567095398902893,"13":-32.22245407104492,"14":-105.06697845458984,"15":51.835960388183594,"16":14.762198448181152}},"2":{"bias":-51.82693862915039,"weights":{"0":-24.8729305267334,"1":-71.16600799560547,"2":43.928855895996094,"3":17.373674392700195,"4":5.99427604675293,"5":-3.010054349899292,"6":2.7908191680908203,"7":-6.171717643737793,"8":-16.981138229370117,"9":-1.5885452032089233,"10":1.0162581205368042,"11":-0.3690422773361206,"12":-1.974950909614563,"13":-20.23598289489746,"14":55.05748748779297,"15":14.60311222076416,"16":-13.511423110961914}},"3":{"bias":-16.039194107055664,"weights":{"0":-13.8489408493042,"1":2.5242509841918945,"2":-16.469465255737305,"3":140.0740509033203,"4":-13.768596649169922,"5":-13.000936508178711,"6":22.747520446777344,"7":51.916664123535156,"8":-24.057777404785156,"9":17.24907112121582,"10":7.181549072265625,"11":13.125722885131836,"12":-23.325178146362305,"13":-83.14969635009766,"14":-11.428425788879395,"15":19.31138801574707,"16":3.264450788497925}},"4":{"bias":-7.556559085845947,"weights":{"0":-1.4670199155807495,"1":-111.9973373413086,"2":7.282037734985352,"3":46.0725212097168,"4":12.315457344055176,"5":18.529146194458008,"6":0.3457421064376831,"7":-9.662562370300293,"8":-2.774221897125244,"9":23.29665184020996,"10":-1.2041244506835938,"11":1.0220986604690552,"12":5.037554740905762,"13":1.1876215934753418,"14":-58.995967864990234,"15":6.308291912078857,"16":23.732810974121094}},"5":{"bias":15.381333351135254,"weights":{"0":-20.439319610595703,"1":-21.5274600982666,"2":26.15127944946289,"3":-6.425981521606445,"4":-0.7638487219810486,"5":-11.61517333984375,"6":-13.536865234375,"7":5.689803600311279,"8":4.2500529289245605,"9":6.005919456481934,"10":3.650308609008789,"11":10.400775909423828,"12":-28.576091766357422,"13":-8.647668838500977,"14":-26.424118041992188,"15":-32.7066535949707,"16":21.17922592163086}},"6":{"bias":-48.65273666381836,"weights":{"0":62.25666046142578,"1":-67.18125915527344,"2":-45.26492691040039,"3":-36.08194351196289,"4":5.457907199859619,"5":-2.446178913116455,"6":-14.840614318847656,"7":21.901912689208984,"8":14.648360252380371,"9":0.10091441869735718,"10":0.17581462860107422,"11":1.0365666151046753,"12":47.44143295288086,"13":-0.6176028251647949,"14":33.67682647705078,"15":24.306968688964844,"16":-12.747926712036133}},"7":{"bias":42.93082809448242,"weights":{"0":-18.92214012145996,"1":0.7091230154037476,"2":25.755088806152344,"3":-26.638532638549805,"4":-9.144231796264648,"5":-9.191749572753906,"6":-9.661300659179688,"7":-7.526020050048828,"8":-5.7214860916137695,"9":11.380070686340332,"10":5.587766170501709,"11":25.242483139038086,"12":-36.267799377441406,"13":-8.186199188232422,"14":-75.47468566894531,"15":0.24320679903030396,"16":-18.415918350219727}},"8":{"bias":39.124473571777344,"weights":{"0":-42.71352005004883,"1":-4.939468860626221,"2":-21.37242317199707,"3":26.511960983276367,"4":18.730628967285156,"5":-17.104768753051758,"6":38.01115036010742,"7":-8.938719749450684,"8":-17.359378814697266,"9":-2.3099160194396973,"10":-1.024722933769226,"11":-5.844152927398682,"12":-19.105764389038086,"13":-19.476926803588867,"14":-59.89226150512695,"15":3.315722703933716,"16":25.362804412841797}},"9":{"bias":28.1687068939209,"weights":{"0":56.24458694458008,"1":-44.1068115234375,"2":-56.443565368652344,"3":22.55098533630371,"4":38.9548454284668,"5":-15.139631271362305,"6":-3.117429733276367,"7":30.09909439086914,"8":-1.946252703666687,"9":21.468767166137695,"10":5.062861919403076,"11":8.815921783447266,"12":-36.21733856201172,"13":3.266566753387451,"14":-51.3327751159668,"15":16.13058853149414,"16":-20.187198638916016}},"10":{"bias":8.52234172821045,"weights":{"0":29.740711212158203,"1":42.36039733886719,"2":-23.08366584777832,"3":-20.895784378051758,"4":43.07175064086914,"5":-20.64314079284668,"6":-18.633602142333984,"7":-5.9846954345703125,"8":21.19144630432129,"9":2.084456443786621,"10":0.07333076745271683,"11":4.413316249847412,"12":-10.637895584106445,"13":-18.95511245727539,"14":-75.01070404052734,"15":57.43692398071289,"16":-10.956658363342285}},"11":{"bias":29.07210922241211,"weights":{"0":-51.74618911743164,"1":28.01366424560547,"2":9.001309394836426,"3":34.26152420043945,"4":-78.06181335449219,"5":56.31617736816406,"6":-5.81807804107666,"7":-5.893845558166504,"8":7.024792194366455,"9":0.6127696633338928,"10":15.430100440979004,"11":0.051909398287534714,"12":5.9699811935424805,"13":45.04309844970703,"14":-153.71469116210938,"15":-70.83121490478516,"16":102.0243148803711}},"12":{"bias":7.749050617218018,"weights":{"0":-56.291595458984375,"1":6.523610591888428,"2":11.426197052001953,"3":-25.168235778808594,"4":13.901265144348145,"5":6.204845905303955,"6":42.6551513671875,"7":-15.211631774902344,"8":4.090178966522217,"9":7.083652496337891,"10":12.116484642028809,"11":15.084184646606445,"12":-88.70780944824219,"13":10.055686950683594,"14":-39.67243194580078,"15":41.134361267089844,"16":38.26700973510742}},"13":{"bias":-13.729479789733887,"weights":{"0":-27.020751953125,"1":-30.984996795654297,"2":28.812604904174805,"3":-4.264791488647461,"4":-79.23833465576172,"5":29.19462013244629,"6":10.340900421142578,"7":2.2150492668151855,"8":-1.721506118774414,"9":9.019922256469727,"10":11.021788597106934,"11":28.12138557434082,"12":-91.37445831298828,"13":-17.000526428222656,"14":-16.02962303161621,"15":78.76334381103516,"16":79.15937042236328}},"14":{"bias":2.0451574325561523,"weights":{"0":-65.61630249023438,"1":40.679012298583984,"2":-24.76788330078125,"3":-19.762588500976562,"4":-24.624143600463867,"5":30.868417739868164,"6":-24.566675186157227,"7":35.53772735595703,"8":-9.40327262878418,"9":-3.8322017192840576,"10":-6.017316818237305,"11":-14.949844360351562,"12":73.4073715209961,"13":5.987728595733643,"14":-6.838634490966797,"15":-42.26198196411133,"16":-32.46711349487305}},"15":{"bias":-21.822059631347656,"weights":{"0":-32.485618591308594,"1":-10.730066299438477,"2":21.945541381835938,"3":-0.8372235298156738,"4":60.45907211303711,"5":-14.73719310760498,"6":1.697717547416687,"7":3.0962862968444824,"8":-6.5716872215271,"9":-4.261042594909668,"10":3.0312345027923584,"11":-3.190406560897827,"12":12.985608100891113,"13":14.430580139160156,"14":-6.892386436462402,"15":26.393815994262695,"16":-36.511905670166016}},"16":{"bias":7.875906944274902,"weights":{"0":-43.5845832824707,"1":65.43396759033203,"2":-4.76052713394165,"3":4.511210918426514,"4":6.240019798278809,"5":-49.06697463989258,"6":1.6148827075958252,"7":-8.839677810668945,"8":-11.247593879699707,"9":-0.040320154279470444,"10":-0.12085384130477905,"11":-1.1538903713226318,"12":53.29976272583008,"13":44.80182647705078,"14":-166.68511962890625,"15":-7.817249774932861,"16":28.30364227294922}},"17":{"bias":-7.896017074584961,"weights":{"0":48.26921463012695,"1":11.083541870117188,"2":-12.512782096862793,"3":34.063716888427734,"4":29.413057327270508,"5":-0.48745274543762207,"6":32.86335754394531,"7":12.327847480773926,"8":0.9221251010894775,"9":3.1958775520324707,"10":-4.579016208648682,"11":-9.457782745361328,"12":-48.93767166137695,"13":-56.45143508911133,"14":-54.59705352783203,"15":30.987985610961914,"16":-21.028743743896484}},"18":{"bias":-45.07088088989258,"weights":{"0":11.60515022277832,"1":-44.51633071899414,"2":-3.1632659435272217,"3":31.06117057800293,"4":36.3043098449707,"5":-36.553585052490234,"6":-6.509172439575195,"7":-5.8432512283325195,"8":-1.9657987356185913,"9":22.369258880615234,"10":1.6242026090621948,"11":-0.54401695728302,"12":-86.45848846435547,"13":13.931798934936523,"14":46.654136657714844,"15":2.4049010276794434,"16":57.99732208251953}},"19":{"bias":1.4788461923599243,"weights":{"0":-26.75758171081543,"1":7.950268745422363,"2":9.893399238586426,"3":-14.86066722869873,"4":2.913417100906372,"5":-12.248329162597656,"6":4.726662635803223,"7":41.73659133911133,"8":7.228806495666504,"9":5.015854835510254,"10":9.536208152770996,"11":20.531309127807617,"12":45.305789947509766,"13":-79.2264175415039,"14":-37.59498596191406,"15":49.05996322631836,"16":-23.27250099182129}}},{"0":{"bias":0.00597818149253726,"weights":{"0":-9.944283485412598,"1":-3.6958775520324707,"2":-6.080927848815918,"3":-5.0789899826049805,"4":10.447440147399902,"5":-47.79231262207031,"6":13.221956253051758,"7":-14.756771087646484,"8":-12.617603302001953,"9":-5.817507266998291,"10":-14.848238945007324,"11":-13.823473930358887,"12":-17.11787986755371,"13":20.106069564819336,"14":-13.289724349975586,"15":17.45516014099121,"16":-4.827010154724121,"17":0.24958664178848267,"18":-15.816664695739746,"19":12.690287590026855}},"1":{"bias":-13.74008846282959,"weights":{"0":13.001136779785156,"1":8.161734580993652,"2":8.213521957397461,"3":4.652115345001221,"4":-12.683165550231934,"5":-13.548937797546387,"6":-24.239391326904297,"7":5.391446113586426,"8":26.672557830810547,"9":-15.288808822631836,"10":13.338312149047852,"11":9.15280532836914,"12":9.406264305114746,"13":-6.628833293914795,"14":-2.5811753273010254,"15":2.535834789276123,"16":5.045510768890381,"17":12.40750789642334,"18":17.90397834777832,"19":1.795214295387268}},"2":{"bias":-0.01641213893890381,"weights":{"0":-5.3712687492370605,"1":-5.681659698486328,"2":-2.4014980792999268,"3":-5.4210076332092285,"4":0.5582609176635742,"5":6.3522047996521,"6":-5.957061290740967,"7":9.216557502746582,"8":-2.880709648132324,"9":5.643019199371338,"10":0.3318500518798828,"11":8.285959243774414,"12":-4.1332926750183105,"13":-4.292508602142334,"14":6.040112495422363,"15":-13.022965431213379,"16":-9.27269458770752,"17":-0.12687961757183075,"18":-11.379842758178711,"19":-5.145606517791748}},"3":{"bias":-17.697786331176758,"weights":{"0":19.205791473388672,"1":-2.119744062423706,"2":21.440914154052734,"3":-3.292240858078003,"4":-8.455827713012695,"5":1.470376968383789,"6":-19.057373046875,"7":-3.478900194168091,"8":-2.272531747817993,"9":15.394363403320312,"10":-3.4367001056671143,"11":-13.736312866210938,"12":-1.6544910669326782,"13":-16.49031639099121,"14":12.497932434082031,"15":-13.436405181884766,"16":0.2944606840610504,"17":-14.66846752166748,"18":-12.948761940002441,"19":-8.312908172607422}}}],"outputLookup":false,"inputLookup":false,"activation":"sigmoid","trainOpts":{"iterations":20000,"errorThresh":0.005,"log":false,"logPeriod":10,"learningRate":0.3,"momentum":0.1,"callbackPeriod":10,"beta1":0.9,"beta2":0.999,"epsilon":1e-8}}